Language model created by QuickLM on Sun Dec 14 01:03:16 EST 2014
Copyright (c) 1996-2010 Carnegie Mellon University and Alexander I. Rudnicky

The model is in standard ARPA format, designed by Doug Paul while he was at MITRE.

The code that was used to produce this language model is available in Open Source.
Please visit http://www.speech.cs.cmu.edu/tools/ for more information

The (fixed) discount mass is 0.5. The backoffs are computed using the ratio method.
This model based on a corpus of 8 sentences and 12 words

\data\
ngram 1=12
ngram 2=18
ngram 3=10

\1-grams:
-0.8129 </s> -0.3010
-0.8129 <s> -0.2285
-1.7160 ADJUST -0.2285
-1.7160 COME -0.2926
-1.7160 DONE -0.2285
-1.7160 GOOD -0.2926
-1.7160 GRAB -0.2285
-1.7160 HERE -0.2285
-1.7160 HOLD -0.2285
-1.7160 JOB -0.2285
-1.7160 READY -0.2285
-1.7160 STOP -0.2285

\2-grams:
-1.2041 <s> ADJUST 0.0000
-1.2041 <s> COME 0.0000
-1.2041 <s> DONE 0.0000
-1.2041 <s> GOOD 0.0000
-1.2041 <s> GRAB 0.0000
-1.2041 <s> HOLD 0.0000
-1.2041 <s> READY 0.0000
-1.2041 <s> STOP 0.0000
-0.3010 ADJUST </s> -0.3010
-0.3010 COME HERE 0.0000
-0.3010 DONE </s> -0.3010
-0.3010 GOOD JOB 0.0000
-0.3010 GRAB </s> -0.3010
-0.3010 HERE </s> -0.3010
-0.3010 HOLD </s> -0.3010
-0.3010 JOB </s> -0.3010
-0.3010 READY </s> -0.3010
-0.3010 STOP </s> -0.3010

\3-grams:
-0.3010 <s> ADJUST </s>
-0.3010 <s> COME HERE
-0.3010 <s> DONE </s>
-0.3010 <s> GOOD JOB
-0.3010 <s> GRAB </s>
-0.3010 <s> HOLD </s>
-0.3010 <s> READY </s>
-0.3010 <s> STOP </s>
-0.3010 COME HERE </s>
-0.3010 GOOD JOB </s>

\end\
